svm_type c_svc
kernel_type rbf
gamma 0.030303030303030304
nr_class 7
total_sv 116
rho -0.4027370810508728 -0.78134475348385612 -0.98286154808295567 -1.0122613684094106 -0.90467411770919193 -0.94667980465028589 -0.82646953237722265 -1.0054686127254557 -0.98181003763843044 -0.83881443772827613 -0.88445782934351369 -0.98701181945335159 -0.92973605164205686 -0.5325145503685319 -0.93935982129005191 -0.84105218104724699 -0.063124597072601318 -0.83299280741981974 0.95452500476648194 -0.83721449892409938 -0.93781139046045769
label 25 30 40 50 20 18 16
nr_sv 31 30 18 13 7 12 5
SV
0 0 0 0 1 0 2:1 3:0.4 5:1 8:1 15:0.6 16:1 17:0.333333 18:1 19:0.75 20:1 21:0.75 22:0.75 23:0.5 24:0.666667 25:1 26:0.75 27:1 28:0.75 29:0.5 30:0.5 31:0.5 32:0.666667 33:0.666667 
1 0 0 0 0 0.21361243959888951 3:0.4 4:0.2 5:1 10:1 15:0.6 16:0.25 17:0.666667 18:1 19:0.75 20:0.666667 21:0.75 22:0.5 23:0.75 24:0.666667 25:0.5 26:0.25 27:0.25 28:0.75 29:1 30:0.5 32:0.666667 33:1 
1 1 1 0 0 0 3:0.6 4:1 5:1 10:1 15:0.4 16:0.5 17:0.333333 18:1 19:1 20:1 21:0.75 22:0.5 23:1 24:0.666667 25:0.5 26:0.5 27:0.5 28:0.5 29:1 30:1 31:1 32:1 33:0.666667 
1 0.81581781844815737 1 0 0 0.089067372646981918 3:0.4 4:0.2 5:1 12:1 15:0.8 17:1 18:1 19:0.5 20:1 21:0.5 22:0.5 23:1 24:0.666667 25:1 26:0.75 27:0.5 28:0.5 29:0.5 30:0.25 31:0.75 32:1 33:1 
1 1 1 0 0 0 3:0.4 4:0.2 5:1 9:1 15:0.4 16:0.5 17:0.666667 18:0.333333 19:0.75 20:1 21:0.75 22:0.75 23:0.75 24:0.666667 25:0.5 26:0.5 27:0.5 28:0.5 29:0.75 30:0.75 31:0.5 32:0.666667 33:1 
1 0 0.8954843481906849 0 0.23418319631903095 0.059040827404093804 2:1 3:0.4 5:1 12:1 15:1 16:0.75 17:0.666667 18:0.666667 19:0.75 20:1 21:0.75 22:0.5 23:0.25 24:0.333333 25:0.25 26:0.5 27:0.5 28:0.5 29:0.5 30:0.5 31:0.5 32:0.666667 33:0.666667 
1 1 1 0 0.3620768438630918 0 3:0.4 4:0.2 5:1 9:1 15:0.6 16:1 17:1 18:0.333333 19:0.75 20:1 21:0.5 22:0.5 23:0.75 24:0.333333 25:0.5 26:0.5 27:0.5 28:0.5 29:0.5 30:0.5 31:0.25 32:0.333333 33:0.666667 
1 1 0.71832212961616071 0.84955188633704415 1 0.70131579136864863 3:0.6 6:1 9:1 16:0.75 17:0.666667 18:0.666667 19:1 20:0.666667 21:0.25 22:0.25 23:0.75 24:0.666667 26:0.25 27:0.25 28:0.5 29:0.5 30:0.5 31:0.25 32:0.666667 33:0.666667 
1 0.89435460398342559 0.087156933690149277 0.61807377133833974 1 1 3:0.2 4:0.2 6:1 12:1 15:0.4 17:0.333333 18:0.333333 19:1 20:0.333333 21:0.25 22:0.5 23:0.5 24:0.666667 25:0.25 26:0.25 27:0.25 28:0.25 29:0.25 30:0.25 31:0.75 32:0.333333 33:0.666667 
1 0.33414585235432404 0.38477031579786319 0.54878847481325332 0.82018579348554999 0 2:1 3:0.8 4:0.2 6:1 13:1 15:1 16:0.5 17:1 18:0.666667 19:0.75 20:1 21:1 22:0.75 23:1 24:0.666667 25:0.5 26:0.5 27:0.5 28:1 29:1 30:1 32:0.666667 33:1 
1 1 1 0 0.28898454745501762 0 3:0.4 4:1 5:1 8:1 15:0.8 16:0.5 17:0.666667 18:0.666667 19:0.5 20:0.666667 21:0.75 22:0.75 23:0.75 24:0.666667 25:0.25 26:0.75 27:0.5 28:0.75 29:0.75 30:0.75 31:0.5 32:0.333333 33:0.666667 
1 1 0.22525270983217496 0 0.24300480916114028 0 2:1 3:1 4:0.2 6:1 9:1 15:0.4 16:0.5 17:0.333333 18:0.666667 19:0.5 20:0.666667 21:0.75 22:0.5 23:0.75 24:0.666667 25:0.5 26:0.75 27:0.5 28:0.75 29:0.75 30:0.75 31:0.75 32:0.666667 33:1 
1 1 0.37892463845718627 0 0 0 3:0.6 4:0.2 5:1 9:1 15:0.8 16:0.5 17:0.666667 18:0.333333 19:0.75 21:0.5 22:0.5 23:0.25 24:0.666667 25:0.75 26:0.25 27:0.5 28:0.5 29:0.75 30:0.5 31:0.5 33:0.333333 
1 0 0 0.57736446848315714 0.21148024794911247 0.14186117251799957 3:0.4 5:1 14:1 15:0.4 16:0.75 17:1 18:0.666667 19:1 20:0.666667 21:0.75 22:0.75 23:1 24:1 25:0.75 26:0.75 27:0.5 28:1 29:0.75 30:0.75 31:0.75 32:0.333333 33:0.666667 
1 0.21421545620495214 0 0 0 0 3:0.2 4:0.2 5:1 11:1 15:0.6 16:0.75 17:0.666667 18:1 19:1 20:1 21:1 22:0.75 23:1 24:0.666667 25:0.75 26:0.75 27:0.75 28:0.75 29:1 30:1 31:0.75 32:1 33:1 
1 0 0 0 1 0 3:0.6 6:1 8:1 15:0.4 17:1 18:1 19:1 20:1 21:1 22:0.75 23:1 24:1 25:1 26:1 27:0.5 28:0.75 29:1 30:1 31:0.5 32:1 33:1 
1 1 1 1 1 0.92310790635748474 4:1 6:1 12:1 15:0.8 16:0.75 17:1 18:1 19:0.75 20:1 21:1 22:0.75 23:0.75 24:0.666667 25:0.75 26:0.75 27:0.5 28:0.75 29:0.75 30:0.75 31:0.5 32:0.666667 33:1 
1 1 1 0 0 0 3:0.8 4:1 6:1 11:1 15:1 16:0.5 17:0.666667 18:0.666667 19:0.75 20:1 21:1 22:1 23:1 24:1 25:0.75 26:0.75 27:0.75 28:0.75 29:1 30:1 31:1 32:0.666667 33:1 
1 0 0 0.087867836575423214 1 0.058246266255013536 3:0.8 6:1 11:1 15:0.6 16:0.5 17:1 18:1 19:0.75 20:1 21:1 22:1 23:1 24:1 25:1 26:1 27:1 28:0.75 29:1 30:1 31:0.75 32:0.666667 33:0.666667 
1 0.87189306836627267 0 0.65478864004891246 0 0.41779676197191773 3:0.6 5:1 10:1 15:1 16:0.25 17:1 18:0.666667 19:0.5 20:1 21:0.5 22:0.75 23:1 24:1 25:1 26:0.75 27:0.75 28:0.75 29:1 30:1 31:0.75 32:0.666667 33:1 
1 1 0 0.084111166900526557 1 0.39790716504877072 2:1 4:0.2 5:1 9:1 15:1 16:0.25 17:1 18:0.333333 19:0.75 20:1 21:0.75 22:0.75 23:1 24:0.333333 25:1 26:0.75 27:0.75 28:0.75 29:0.5 30:0.5 31:0.75 32:0.666667 33:1 
1 1 1 0 0 0 3:1 4:0.2 5:1 8:1 15:0.8 16:0.5 17:0.666667 18:1 19:0.75 20:1 21:1 22:0.75 23:1 24:1 25:1 26:0.75 27:1 28:0.75 29:1 30:1 31:0.75 32:1 33:1 
1 0 0 1 1 0.56664711762317466 2:1 3:0.2 6:1 8:1 15:0.8 16:0.25 17:1 18:0.666667 19:0.75 20:0.666667 21:0.75 22:0.75 23:0.75 24:0.666667 25:0.5 26:0.75 27:0.75 28:0.75 29:1 30:0.75 31:0.75 32:0.666667 33:0.666667 
1 1 1 0 0 0.065906130804221599 3:0.4 4:0.2 5:1 12:1 15:0.8 16:0.5 17:0.666667 18:0.666667 19:0.5 20:0.333333 21:0.5 22:0.75 23:1 24:1 25:0.75 26:1 27:0.75 28:0.75 29:0.75 30:1 31:0.5 32:0.333333 33:0.666667 
1 0.32526931625404254 0 0.1450147157645813 0 0 3:0.4 4:0.2 5:1 8:1 15:0.2 16:0.75 17:0.666667 18:0.666667 19:1 20:0.666667 21:0.75 22:0.75 23:0.75 24:0.666667 25:0.75 26:0.75 27:0.75 28:0.75 29:0.75 30:0.75 31:1 32:0.666667 33:0.666667 
1 0 0 0 0 0 2:1 3:1 4:0.2 5:1 8:1 15:1 16:1 17:0.666667 18:1 19:1 20:1 21:0.75 22:0.75 23:1 24:1 25:0.75 26:1 27:0.75 28:1 29:0.75 30:0.75 31:1 32:0.666667 33:1 
1 1 0.050754472731038738 0 0 0 3:0.8 4:1 5:1 8:1 15:0.6 16:0.5 17:0.666667 18:0.666667 19:0.75 20:0.666667 21:0.75 22:0.5 23:0.75 24:0.666667 25:0.75 26:0.75 27:0.5 28:0.75 29:0.75 30:0.75 31:0.5 33:0.666667 
1 0.085606557891187693 0 0.23767998512759062 0 0 2:1 3:0.6 4:0.2 5:1 10:1 15:0.6 16:0.75 17:1 18:1 19:1 20:0.666667 21:0.75 22:0.75 23:0.25 24:0.666667 25:0.5 26:0.75 27:0.75 28:0.75 29:0.25 30:0.25 31:0.75 32:0.666667 33:1 
1 0.45869732649763784 0.25933445168474201 0.26352129721354972 0 0 3:0.6 4:0.2 5:1 10:1 15:0.8 16:0.5 17:0.666667 18:0.666667 19:0.75 20:0.666667 21:0.5 22:1 23:1 24:0.666667 25:0.75 26:0.75 27:0.5 28:0.75 29:0.5 30:0.5 31:0.25 32:0.666667 33:1 
1 1 1 0.27538278434577929 1 0.36549104840280383 3:0.6 4:1 6:1 14:1 15:0.8 16:0.5 17:0.666667 18:1 19:1 20:1 21:0.75 22:0.75 23:1 24:1 25:0.75 26:1 27:0.75 28:0.75 29:0.75 30:0.75 32:0.666667 33:1 
1 0 0 0.65785497305184237 0.84008456176705693 0 4:0.2 5:1 11:1 15:0.6 16:0.75 17:0.666667 18:1 19:1 20:0.666667 21:0.75 22:1 23:1 24:1 25:0.5 26:0.75 27:0.5 28:0.75 29:1 30:0.75 32:0.666667 33:1 
-1 1 0 0 0 0 3:0.6 4:0.2 5:1 9:1 15:1 16:0.75 17:0.666667 18:1 19:0.5 20:0.666667 21:0.75 22:0.75 23:0.75 24:1 25:0.25 26:0.5 27:1 28:1 29:1 30:1 31:0.75 32:1 33:1 
-1 1 0.30045866663206272 1 1 0.51972503781898216 3:0.2 5:1 9:1 15:0.6 16:0.75 17:0.666667 18:0.666667 19:0.75 20:0.333333 21:0.25 22:0.75 23:1 24:0.666667 25:0.25 26:0.25 27:0.75 28:0.75 29:0.5 30:0.25 31:0.25 32:0.333333 33:0.666667 
-1 1 1 0 0 0 3:0.8 4:1 5:1 11:1 15:0.8 16:1 17:0.333333 18:0.666667 19:0.5 20:0.666667 21:0.75 22:0.75 23:1 24:0.666667 25:0.75 26:0.5 27:0.5 28:0.75 29:0.75 30:0.75 31:1 32:1 33:1 
-1 0 0.43459885169933959 0.39675215385079943 0.87451631795685414 0.053428201373777739 2:1 3:0.4 4:0.2 5:1 12:1 15:0.8 16:0.25 17:0.666667 18:1 19:0.75 20:0.666667 21:0.75 22:1 24:0.666667 26:0.5 27:0.5 28:0.5 29:0.5 30:0.5 31:0.5 32:0.333333 33:1 
-1 0 0.7114310596895207 0 0.57630231080323147 0 2:1 3:0.4 5:1 12:1 15:1 16:1 17:0.666667 18:0.666667 19:0.75 20:1 21:1 22:0.75 23:0.5 24:0.666667 26:0.5 27:0.5 28:0.5 29:0.5 30:0.5 31:0.25 32:0.333333 33:1 
-1 1 0.054823799437159329 0 0 0 3:0.8 4:0.2 5:1 9:1 15:1 16:0.25 17:1 18:1 19:1 20:0.666667 21:0.25 22:0.75 23:1 24:1 25:0.25 26:0.75 27:0.75 28:0.5 29:1 30:1 31:0.75 32:0.333333 33:1 
-1 0.79932206516415638 0.30443110331110529 0 0 0.20836159282743527 2:1 3:0.4 4:1 5:1 10:1 15:1 16:0.25 17:0.333333 18:0.333333 19:0.5 20:1 21:0.75 22:0.25 23:0.75 24:0.333333 26:0.25 27:0.5 28:0.5 29:0.5 30:0.5 31:0.25 32:0.666667 33:1 
-1 0.30328554987116907 1 0 0 0 3:1 4:0.2 5:1 9:1 15:0.8 16:0.75 17:1 18:0.333333 20:1 21:1 22:0.75 23:0.75 24:0.666667 25:0.5 26:0.5 27:0.5 28:0.5 29:0.75 30:0.75 31:0.25 32:0.333333 33:0.666667 
-1 1 1 0 0.042525602629139937 0 3:0.8 5:1 9:1 15:0.6 16:0.75 17:0.333333 18:0.666667 19:0.75 20:0.666667 21:0.5 22:0.75 23:0.75 24:0.666667 25:0.5 26:0.75 27:0.75 28:0.75 29:0.5 30:0.5 31:0.75 32:0.666667 33:0.666667 
-1 0.68977325180010862 0 0 1 0.37859396265845469 3:0.4 4:1 6:1 8:1 15:1 16:0.5 17:0.666667 18:1 19:0.25 20:1 21:1 22:0.5 23:0.75 24:1 25:0.25 26:1 27:0.5 28:0.25 29:0.75 30:0.25 31:0.25 33:0.666667 
-1 1 0.27543763149523542 0.63998159747550087 1 1 3:0.2 4:1 6:1 9:1 15:0.6 16:0.25 17:0.666667 18:0.666667 19:0.25 20:0.666667 21:0.5 22:0.75 23:0.75 24:1 25:0.5 26:0.75 27:0.5 28:0.75 29:0.75 30:0.5 31:0.25 33:0.666667 
-1 0.58788463792048984 0.85808830241942868 0.42926223723110535 0.40653381956959905 0.034084318710404279 3:0.8 4:0.2 6:1 10:1 15:0.8 17:1 18:1 19:1 20:1 21:0.75 22:1 23:1 24:1 26:1 27:0.25 28:1 29:1 30:1 31:0.5 32:1 33:1 
-1 0 0.23668029080566397 0 1 0 3:0.6 6:1 11:1 15:1 16:1 17:1 18:1 19:1 20:1 21:0.75 22:1 23:1 24:1 25:0.75 26:1 27:1 28:1 29:0.75 30:0.75 31:1 32:1 33:1 
-1 0.75405170008412448 0.44949253616368917 1 1 1 2:1 3:0.6 6:1 12:1 15:0.6 16:0.75 17:1 18:1 19:1 20:1 21:0.75 22:1 23:0.75 24:0.666667 25:0.5 26:0.75 27:0.75 28:0.5 29:0.5 30:0.5 31:0.75 32:0.666667 33:0.666667 
-1 1 0 1 0.68178073616976653 0.76066280446324042 3:0.6 4:0.2 6:1 10:1 15:0.6 16:0.75 17:0.666667 18:0.666667 19:1 20:0.666667 21:0.5 22:0.75 23:0.75 24:1 25:0.75 26:0.75 27:0.75 28:0.75 29:0.75 30:0.75 31:0.75 32:0.666667 33:0.666667 
-1 1 1 0 0 0 3:0.6 4:1 5:1 9:1 15:0.6 16:0.5 17:0.666667 18:0.666667 19:0.75 20:1 21:0.75 22:0.5 23:0.75 24:0.666667 25:0.5 26:0.5 27:0.5 28:0.5 29:0.75 30:0.5 31:0.5 32:0.666667 33:0.666667 
-1 0.69949199664828654 0 1 1 0.43340846057188087 4:0.2 5:1 10:1 15:0.6 16:0.5 17:0.666667 18:0.666667 19:1 20:1 21:0.75 22:0.75 23:0.75 24:0.333333 25:0.75 26:0.5 27:0.75 28:0.75 29:1 30:1 31:0.75 32:0.333333 33:0.666667 
-1 1 1 0 0 0 3:1 4:1 5:1 12:1 15:0.6 16:0.75 17:0.666667 18:1 19:1 20:1 21:1 22:0.75 23:1 24:1 25:1 26:0.75 27:0.75 28:0.75 29:1 30:1 31:1 32:1 33:1 
-1 0 0 0 0 0 3:1 6:1 10:1 15:0.6 16:0.75 17:1 18:1 19:1 20:1 21:1 22:1 23:1 24:1 25:0.75 26:0.75 27:0.5 28:0.5 29:0.75 30:0.75 31:0.5 32:0.666667 33:1 
-1 0.85172519098027255 1 0.082098108890375998 0.41834121287140891 0.51264456411189152 3:0.2 4:0.2 5:1 12:1 15:0.8 16:0.75 17:1 18:1 19:1 20:1 21:1 22:0.75 23:1 24:1 25:0.5 26:0.5 27:0.5 28:0.75 29:0.75 30:0.75 31:0.75 32:0.666667 33:0.666667 
-1 0 0 0.53277324624700795 0 0 3:0.6 4:1 6:1 8:1 15:1 16:1 17:1 18:0.666667 19:0.5 20:1 21:0.75 22:0.75 23:1 24:1 26:1 27:1 28:0.25 29:1 30:1 31:0.5 32:0.666667 33:1 
-1 0.5093208797518346 0.45321620042991029 0 1 0 3:0.6 4:1 6:1 8:1 15:1 16:1 17:0.666667 18:0.666667 19:0.5 20:1 21:0.75 22:0.75 23:1 24:1 25:0.25 26:1 27:1 28:0.5 29:1 30:0.75 31:0.5 32:0.666667 33:1 
-1 1 1 0 0 0 3:0.6 4:1 5:1 8:1 15:0.6 16:0.25 17:0.666667 18:0.333333 19:0.5 20:0.666667 21:0.75 22:0.5 23:0.75 24:0.666667 25:0.5 26:0.75 27:0.75 28:0.5 29:0.5 30:0.75 31:0.25 32:0.333333 33:0.666667 
-1 0 0 0.38945298893135616 1 0 3:0.6 6:1 11:1 15:0.4 16:1 17:1 18:1 19:0.75 20:1 21:0.75 22:1 23:1 24:1 25:0.75 26:1 27:0.75 28:1 29:1 30:1 31:0.25 32:0.333333 33:0.666667 
-1 0.099462571503699748 0 0 0 0 3:0.6 4:1 7:1 10:1 15:0.6 17:1 18:0.666667 19:0.75 20:0.666667 21:0.75 22:0.75 23:0.75 24:0.666667 25:0.75 26:0.75 27:1 28:0.75 29:0.75 30:0.75 31:1 32:0.666667 33:0.666667 
-1 1 0.8975556595228068 0 0 0 3:1 4:1 7:1 9:1 15:0.6 16:0.75 17:0.666667 18:0.666667 19:0.75 20:0.666667 21:0.25 22:0.75 23:0.75 24:0.666667 25:0.75 26:0.75 27:0.75 28:0.75 29:0.75 30:0.75 31:0.75 32:0.666667 33:1 
-1 0 0 0 0 0 3:0.6 5:1 10:1 15:0.6 16:1 17:1 18:1 19:1 20:1 21:1 22:1 23:1 24:0.666667 25:0.75 26:0.75 27:1 28:0.75 29:1 30:1 31:0.75 32:0.666667 33:1 
-1 0 0 0 0 0 3:1 4:0.2 5:1 10:1 15:1 16:0.5 17:1 18:1 19:0.75 20:1 21:1 22:1 23:0.75 24:1 25:1 26:1 27:1 28:1 29:1 30:1 31:0.75 32:0.666667 33:1 
-1 0.70568215627585829 1 0.5296796673738543 1 0.099091057463932999 3:0.6 4:1 6:1 14:1 15:0.8 16:0.75 17:1 18:1 19:0.75 20:1 21:0.75 22:1 23:1 24:1 25:1 26:1 27:1 28:1 29:1 30:1 31:0.5 32:0.666667 33:1 
-1 1 0.02378589839407819 0 0 0 3:0.4 4:1 5:1 9:1 15:0.8 17:1 18:1 19:0.25 20:0.666667 21:0.5 22:0.5 23:0.5 24:0.333333 26:0.75 27:0.5 28:0.75 29:0.75 30:0.75 31:1 32:0.333333 33:1 
-1 -1 0 0 0 0 3:0.6 4:1 5:1 9:1 15:0.8 16:0.5 17:0.333333 18:0.666667 19:0.75 20:0.666667 21:0.25 22:0.5 23:0.75 24:1 25:0.5 26:0.75 27:0.75 28:0.75 29:1 30:1 31:1 32:1 33:1 
-1 -1 1 0 1 0 3:0.8 4:1 6:1 9:1 15:1 17:0.666667 18:0.666667 19:0.75 20:1 21:1 22:1 23:1 24:1 25:0.75 26:0.75 27:0.5 28:1 29:1 30:1 31:0.75 32:0.666667 33:1 
-1 -1 1 0.58627379022044235 1 0.58355546667903446 3:0.4 4:0.2 5:1 12:1 15:0.4 16:0.5 19:0.75 20:0.666667 21:0.75 22:0.5 23:0.5 24:0.333333 26:0.25 27:0.5 28:0.5 29:0.5 30:0.5 31:0.5 32:0.333333 33:0.666667 
-1 -1 0.22280628284925819 0.07578991050551824 1 0.29926246309916488 3:0.6 6:1 8:1 15:0.4 17:0.333333 18:1 20:0.666667 21:0.5 23:0.5 24:1 26:1 27:0.5 28:0.5 31:0.5 32:0.333333 33:0.666667 
-1 -1 1 1 1 1 3:0.4 4:0.2 6:1 10:1 15:0.6 16:0.5 17:0.333333 18:0.333333 19:0.75 20:0.666667 21:0.75 22:1 23:1 24:0.666667 25:0.5 26:0.5 27:0.5 28:0.75 29:0.75 30:0.75 31:0.5 32:0.666667 33:1 
-1 -1 1 0 0 0 3:0.8 4:1 5:1 12:1 15:0.6 16:0.5 17:0.666667 19:0.5 20:0.333333 21:0.5 22:0.25 23:0.75 24:0.666667 25:0.5 26:0.75 27:0.25 28:0.25 29:0.5 30:0.5 31:0.5 32:0.666667 33:0.333333 
-1 -1 0.63701762947640894 0 0.27136171050482322 0.35228332653534583 3:0.4 4:1 5:1 9:1 15:0.8 16:0.25 17:0.666667 18:0.333333 19:0.5 20:0.666667 21:0.5 22:0.25 23:0.5 24:0.333333 25:0.25 26:0.25 28:0.25 29:0.5 30:0.25 31:0.5 33:0.333333 
-1 -1 0.31160310872089514 0.43862835407942552 0.57410885654617305 0 3:0.4 4:1 5:1 10:1 15:0.4 16:0.5 17:0.666667 18:0.333333 19:1 20:0.666667 21:0.75 22:0.5 23:1 24:0.666667 25:0.75 26:0.75 27:1 28:0.75 29:0.5 30:0.75 31:0.5 32:0.666667 33:0.666667 
-1 -1 0.90014968356869451 0 0 0 3:0.6 4:1 5:1 9:1 15:0.8 16:0.75 17:0.666667 18:0.666667 19:0.75 20:1 21:0.5 22:0.75 23:1 24:1 25:0.5 26:0.75 27:1 28:0.75 29:1 30:0.75 31:1 32:1 33:1 
-1 -1 1 0 0.15452943294900368 0 3:0.8 4:1 5:1 9:1 15:0.8 16:0.75 17:1 18:1 19:1 20:1 21:0.75 22:1 23:1 24:1 25:0.75 26:1 27:1 28:0.75 29:1 30:1 31:1 32:1 33:1 
-1 -1 1 0 0 0 3:0.6 4:1 5:1 9:1 15:1 16:0.5 17:0.666667 18:0.666667 19:0.5 20:1 21:0.75 22:0.75 23:1 24:1 25:0.75 26:0.75 27:0.75 28:1 29:1 30:1 31:0.75 32:1 33:1 
-1 -1 0.21307900564264992 0.020453314561712597 1 0 3:0.6 4:0.2 5:1 9:1 15:0.2 16:0.75 17:0.666667 18:1 19:1 20:1 21:0.75 22:0.75 23:0.75 24:0.333333 25:0.75 26:1 27:0.75 28:0.75 29:0.75 30:0.75 31:0.75 32:0.333333 33:0.666667 
-1 -1 0.22251974068821737 0.99202082154704252 1 0.34402125327694788 3:0.6 4:1 6:1 9:1 15:0.8 16:0.75 17:1 18:1 19:0.75 20:0.666667 21:0.75 22:0.5 23:1 24:1 25:0.75 26:1 27:1 28:1 29:0.75 30:0.75 31:0.5 32:0.666667 33:1 
-1 -1 1 0.44165358944691613 1 0 3:0.6 4:0.2 5:1 13:1 15:0.6 17:0.666667 18:1 19:0.75 20:0.666667 21:0.5 22:0.75 23:0.5 24:0.666667 25:0.5 26:0.5 27:0.75 28:0.75 29:1 30:0.75 31:1 32:1 33:1 
-1 -1 1 0.51675588242201287 1 0.36066404483569819 3:0.4 4:1 5:1 12:1 15:0.8 16:0.75 17:1 18:0.666667 19:0.75 20:1 21:1 22:0.75 23:1 24:0.666667 25:0.75 26:0.75 27:0.75 28:0.75 29:0.75 30:0.75 31:0.25 33:1 
-1 -1 0.71052924318714816 1 1 0.74908975836173175 3:0.4 4:0.2 6:1 8:1 15:0.6 17:1 18:0.666667 19:0.5 20:0.333333 21:0.5 22:0.75 23:0.75 24:0.666667 26:0.5 27:0.5 28:0.5 29:1 30:0.5 31:0.75 32:0.666667 33:0.666667 
-1 -1 1 0.92842433721692985 1 0.41315732264796801 3:0.6 5:1 9:1 15:0.6 16:0.75 17:1 18:1 19:1 20:1 21:1 22:1 23:0.75 24:1 25:1 26:1 27:1 28:0.75 29:0.75 30:0.75 31:1 32:1 33:1 
-1 -1 0.7822953058667278 1 1 0.89796636456410917 2:1 4:0.2 6:1 13:1 15:0.6 16:0.75 17:0.666667 18:1 19:0.5 20:1 22:0.75 23:1 24:1 25:0.25 26:1 27:0.5 28:1 29:0.5 30:0.5 32:0.333333 33:1 
-1 -1 -1 0 1 0 3:0.8 4:1 5:1 9:1 15:0.8 16:0.5 17:0.666667 18:0.666667 19:1 20:1 21:0.5 22:1 23:1 24:1 25:0.5 26:0.75 27:0.5 28:0.5 29:1 30:1 31:0.5 32:0.333333 33:1 
-1 -1 -1 0 1 0 3:0.8 4:0.2 5:1 12:1 15:0.6 16:0.75 17:0.333333 18:0.333333 19:0.75 20:0.666667 21:0.75 22:0.5 23:0.5 24:0.666667 25:0.5 26:0.5 27:0.5 28:0.75 29:0.5 30:0.5 31:0.5 32:0.666667 33:1 
-1 -1 -1 0.45087468934192731 1 0.60788272207418115 3:0.8 4:1 6:1 12:1 15:1 16:0.75 17:0.666667 18:0.666667 19:0.5 20:1 21:1 22:0.75 23:0.75 24:0.333333 25:0.25 27:0.25 28:0.75 29:0.75 30:0.75 31:0.5 32:0.666667 33:1 
-1 -1 -1 0 1 0 3:0.8 4:1 5:1 12:1 15:0.8 16:0.5 17:0.666667 18:0.666667 19:0.25 20:1 21:0.75 22:0.75 23:1 24:1 25:0.5 26:0.75 27:0.75 28:1 29:1 30:1 31:0.5 32:0.666667 33:0.666667 
-1 -1 -1 0.78424089311684064 1 0.97155408845070801 3:0.4 4:0.2 5:1 12:1 15:0.8 16:0.75 17:0.666667 19:0.75 20:1 21:0.25 22:0.5 23:0.5 24:0.333333 25:0.5 26:0.25 27:0.25 28:0.5 29:0.5 30:0.5 31:0.5 32:0.666667 33:1 
-1 -1 -1 0 0 0 3:1 4:1 5:1 12:1 15:1 16:0.5 17:1 18:0.666667 19:0.5 20:1 21:0.75 22:0.75 23:0.5 24:0.333333 25:0.5 26:0.5 27:0.5 28:0.5 29:0.5 30:0.75 31:0.5 32:0.666667 33:1 
-1 -1 -1 0.76488441754123193 1 0.22603315826747011 3:0.8 4:0.2 5:1 11:1 15:0.6 16:0.25 17:0.666667 18:0.666667 19:0.75 20:0.666667 21:0.5 22:1 23:0.75 24:0.666667 25:0.25 26:0.25 27:0.25 28:0.25 29:0.5 30:0.5 31:0.25 32:0.666667 33:1 
-1 -1 -1 1 1 0.74725256061617251 3:0.6 4:1 6:1 9:1 15:0.6 16:0.25 17:0.666667 18:0.666667 19:1 20:1 21:0.75 22:0.5 23:1 24:1 25:1 26:0.75 27:1 28:1 29:1 30:1 31:0.75 32:1 33:1 
-1 -1 -1 0 1 0 3:0.8 4:0.2 5:1 9:1 15:1 16:0.5 17:0.666667 18:0.666667 19:0.75 20:1 21:0.75 22:0.75 23:1 24:1 25:1 26:0.75 27:0.75 28:0.5 29:0.75 30:0.75 31:0.75 32:1 33:1 
-1 -1 -1 1 1 0.42700725761368025 3:0.4 4:0.2 5:1 9:1 15:0.4 16:1 17:0.666667 18:0.666667 19:1 20:0.666667 21:0.75 22:0.75 23:0.75 24:1 25:0.75 26:0.75 27:0.75 28:0.75 29:0.75 30:1 31:0.75 32:1 33:0.666667 
-1 -1 -1 1 1 0.50062037551309524 3:1 4:1 6:1 14:1 15:0.6 16:1 17:0.666667 18:1 19:0.75 20:1 21:0.75 22:0.75 23:1 24:0.666667 25:0.75 26:0.75 27:0.75 28:1 29:0.75 30:0.75 31:1 32:0.666667 33:0.666667 
-1 -1 -1 1 1 0.51964983746469262 3:0.2 4:1 5:1 8:1 15:1 16:0.25 17:1 18:1 19:0.5 20:1 21:1 22:1 23:1 24:1 25:0.25 26:1 27:1 28:1 29:0.5 30:0.5 31:0.25 32:0.666667 33:1 
-1 -1 -1 1 1 1 3:0.8 6:1 13:1 15:0.6 16:0.75 17:0.666667 18:0.666667 19:1 20:1 21:0.25 22:0.75 23:1 24:0.333333 25:0.5 26:0.25 27:0.25 28:0.5 29:0.5 30:0.5 31:0.5 32:0.666667 33:1 
-1 -1 -1 -1 1 0.72839904761917851 3:0.4 5:1 10:1 15:0.6 16:0.25 17:1 18:0.666667 19:1 20:0.666667 21:0.25 22:0.75 23:1 24:1 26:0.75 27:0.5 28:0.5 29:1 30:1 31:0.5 32:0.333333 33:1 
-1 -1 -1 -1 1 1 2:1 6:1 12:1 15:0.8 16:0.75 17:0.666667 18:1 19:0.75 20:0.666667 21:0.75 22:0.75 23:0.5 24:0.333333 25:0.25 26:0.5 27:0.5 28:0.5 29:0.5 30:0.5 31:0.25 32:0.333333 33:0.666667 
-1 -1 -1 -1 1 0.2989329429340174 2:1 6:1 10:1 15:0.8 16:1 17:1 18:0.666667 19:1 20:0.666667 21:0.5 22:1 23:0.75 24:0.666667 25:0.75 26:0.75 27:0.75 28:0.75 29:0.75 30:0.75 31:0.75 32:0.666667 33:1 
-1 -1 -1 -1 1 1 4:0.2 6:1 9:1 15:0.4 16:0.75 17:0.666667 18:0.666667 19:0.75 20:0.666667 21:0.75 22:1 23:0.75 24:0.666667 25:0.75 26:0.75 27:0.75 28:0.75 29:0.75 30:0.75 31:0.75 32:0.666667 33:0.666667 
-1 -1 -1 -1 1 0.38544179822733515 4:0.2 6:1 13:1 15:0.6 16:0.75 17:1 18:1 19:0.75 20:1 21:0.75 22:1 23:1 24:1 25:1 26:1 27:0.75 28:0.75 29:1 30:1 31:0.5 32:0.666667 33:1 
-1 -1 -1 -1 1 0.58722621121946905 5:1 8:1 15:0.4 16:0.25 17:1 18:0.666667 19:1 20:0.666667 21:0.75 22:0.75 23:1 24:0.666667 25:0.25 26:0.5 27:0.25 28:0.75 29:1 30:0.75 31:0.75 32:0.666667 33:0.666667 
-1 -1 -1 -1 1 1 4:1 6:1 14:1 15:0.6 16:0.5 17:0.666667 18:0.666667 19:0.5 20:0.333333 21:0.5 22:1 23:1 24:1 25:0.5 26:0.5 27:0.75 28:0.5 29:0.75 30:0.5 31:0.25 32:0.666667 33:0.666667 
-1 -1 -1 -1 -0.63561339183241161 0 6:1 9:1 15:1 16:0.75 17:1 18:0.666667 19:0.5 20:1 21:1 22:0.75 23:0.75 24:0.666667 25:0.25 26:0.5 27:0.5 28:0.5 29:0.75 30:0.75 31:0.25 32:0.666667 33:1 
-1 -1 -1 -1 -1 1 6:1 12:1 15:0.6 16:0.25 17:0.666667 18:0.666667 19:0.5 20:0.666667 21:0.75 22:0.75 23:1 24:0.666667 25:0.25 26:0.5 27:0.5 28:0.5 29:0.5 30:0.5 31:0.25 32:0.333333 33:0.666667 
-1 -1 -1 -1 -0.36453151578165727 0.63198282147928586 6:1 11:1 15:0.2 18:0.333333 19:0.75 20:0.666667 21:0.25 22:0.5 23:0.5 24:0.666667 25:0.25 26:0.25 27:0.25 28:0.5 31:0.25 
-1 -1 -1 -1 -0 0 2:1 6:1 8:1 15:0.8 16:0.5 17:1 18:1 19:1 20:1 21:0.75 22:1 23:1 24:0.666667 25:0.75 26:1 27:1 28:1 29:0.75 30:0.5 31:0.5 32:0.666667 33:0.666667 
-1 -1 -1 -1 -0.3037063918384823 0 2:1 6:1 8:1 15:0.8 16:0.75 17:1 18:1 19:1 20:1 21:1 22:1 23:1 24:0.666667 25:0.75 26:0.75 27:0.75 28:0.75 29:0.75 30:0.75 31:0.75 32:0.666667 33:1 
-1 -1 -1 -1 -0.011846763513521659 0.67768333468437991 6:1 9:1 15:1 16:0.25 17:1 18:0.666667 19:0.5 20:1 21:0.75 22:0.75 23:1 24:0.666667 25:0.75 26:1 27:0.75 28:0.75 29:0.75 30:0.75 31:0.75 32:1 33:1 
-1 -1 -1 -1 -0.45927096947716073 0.69933906097912135 2:1 6:1 12:1 15:0.6 16:0.5 17:0.666667 18:1 19:0.5 20:0.666667 21:0.75 22:1 23:0.75 25:0.25 26:0.5 27:0.25 28:0.5 29:0.25 30:0.5 31:0.25 32:0.333333 33:0.333333 
-1 -1 -1 -1 -1 0.26063538303190553 6:1 8:1 15:0.8 16:0.75 17:0.666667 18:1 19:1 20:0.666667 21:0.5 22:0.75 23:0.75 24:0.666667 25:0.5 26:1 27:0.5 28:0.75 29:0.75 30:0.75 31:0.75 32:0.666667 33:1 
-1 -1 -1 -1 -0.71641527498090607 0.15377518074694202 5:1 8:1 15:1 16:0.75 17:1 18:1 19:0.75 20:0.666667 21:1 22:1 23:1 24:0.666667 25:0.75 26:0.75 27:0.75 28:1 29:0.75 30:0.75 31:0.75 32:1 33:0.666667 
-1 -1 -1 -1 -1 0.61677527290720424 2:1 5:1 9:1 15:0.8 16:0.75 17:0.666667 18:0.666667 19:1 20:1 21:0.75 22:1 23:0.75 24:0.666667 25:0.75 26:0.75 27:1 28:0.75 29:0.75 30:0.75 31:1 32:0.666667 33:0.666667 
-1 -1 -1 -1 -0.64313078600493589 0.49563231007156644 4:1 6:1 14:1 15:0.6 16:0.5 17:0.666667 18:1 19:0.75 20:1 21:0.75 22:0.75 23:1 24:1 25:0.75 26:0.75 27:1 28:0.75 29:0.75 30:0.75 32:0.666667 33:1 
-1 -1 -1 -1 -0.86548490657092458 0.4641766360995947 4:1 6:1 14:1 15:0.6 16:0.75 17:1 18:1 19:0.75 20:1 21:0.75 22:1 23:1 24:1 25:1 26:0.75 27:0.25 28:0.75 29:0.75 30:0.75 31:0.25 32:1 33:1 
-1 -1 -1 -1 -1 -1 6:1 12:1 15:0.6 16:0.5 17:0.333333 18:0.666667 19:1 20:0.333333 21:0.25 23:0.75 24:0.333333 25:0.25 26:0.25 28:0.5 29:0.5 30:0.75 31:0.5 33:0.666667 
-1 -1 -1 -1 -1 -1 6:1 10:1 15:0.6 16:0.5 17:0.333333 18:1 19:0.25 20:1 21:0.5 22:0.75 23:1 24:1 25:0.25 27:1 29:1 30:0.75 31:0.75 32:1 33:0.666667 
-1 -1 -1 -1 -1 -1 2:1 6:1 12:1 15:1 16:0.25 17:1 18:1 19:0.25 20:1 21:0.5 22:0.75 23:1 24:0.333333 25:1 26:1 27:0.25 28:0.75 29:0.25 31:0.5 32:0.666667 33:0.666667 
-1 -1 -1 -1 -1 -1 3:0.2 4:1 6:1 14:1 15:0.6 17:0.666667 18:0.666667 19:0.75 20:0.666667 21:0.75 22:0.75 23:0.75 24:0.666667 25:0.5 26:0.75 27:0.5 28:0.5 29:0.5 30:0.75 31:0.25 32:0.333333 33:0.666667 
-1 -1 -1 -1 -1 -1 5:1 9:1 15:0.6 16:0.75 17:1 18:0.666667 19:0.75 20:1 21:0.75 22:0.75 23:0.75 24:1 25:0.75 26:0.75 27:0.75 28:1 29:0.75 30:0.75 31:0.75 32:0.666667 33:0.666667 
