svm_type c_svc
kernel_type rbf
gamma 600
nr_class 3
total_sv 498
rho 0.10779110447581106 -0.070938632701312038 -0.1606597758095146
label 2 1 0
nr_sv 159 176 163
SV
1 0.9014417594471984 1:-0.6042732 2:-1.6914015 
1 0.92944521765410293 1:-1.4554967 2:1.13882 
0.6170088499325268 0.51826997186924595 1:-1.7228083 2:0.1600877 
0.64364639212196861 0.54041992599182176 1:-1.0356524 2:-0.9061013 
1 0.92914416883877582 1:-0.1884299 2:-1.4396356 
1 0.92910199227981483 1:-0.0167183 2:-1.3344555 
1 0.84360004327087079 1:-1.7725416 2:-0.2332117 
1 0.89069280732475253 1:-1.7266458 2:-0.177698 
1 0.92909000556995891 1:-0.1951666 2:-1.0631119 
1 0.92902393534922134 1:-0.3647869 2:-1.9312131 
1 0.87730387667238485 1:-1.3939262 2:-0.3541972 
1 0.92952787212335941 1:-0.1519725 2:-1.2122912 
1 0.92611032162267115 1:-1.5736374 2:0.1263886 
0.6529709033700396 0.54692155921393359 1:-1.0165159 2:-0.9206738 
0.93234669495228484 0.78189105393921399 1:-1.0976592 2:-2.2177302 
0.40993695079204784 0.39051503770513096 1:-1.3111988 2:-0.3309189 
1 0.92608802296911974 1:-1.5311776 2:0.0390835 
0.69743670874204333 0.5853343586909624 1:-0.8129344 2:-1.6108455 
1 0.92534516527672506 1:-0.7802531 2:-0.0459607 
0.97918996266568903 0.8215495297781974 1:-0.7054072 2:-1.1077017 
0.96896383364451089 0.81273264370743414 1:-0.7952211 2:-1.3339703 
1 0.89545095940503006 1:-0.366899 2:-0.9077239 
1 0.92955013207827752 1:-1.8262973 2:1.5052807 
1 0.92900913280329733 1:-0.3001663 2:-2.930626 
0.61701291658138246 0.51716171630543961 1:-1.742209 2:0.1625859 
1 0.9290598741308862 1:0.2859941 2:-3.2051914 
1 0.92945529002411453 1:-1.3251333 2:0.0330868 
1 0.92290622484548335 1:-1.0566684 2:-0.5998391 
0.71700319989066308 0.60189682332762062 1:-1.4312348 2:-1.114673 
0.59763961673236254 0.49899375972161686 1:-1.3123759 2:-0.6971604 
1 1 1:1.5737504 2:0.8176377 
0.24709688576378699 0.21047730678338358 1:-0.3169562 2:-2.3564314 
1 0.92874579888473385 1:-0.5814079 2:-1.1437134 
0.99404532392287881 0.83428876833728827 1:0.1258786 2:-2.4178208 
1 0.92897804614629742 1:-1.5487907 2:-1.4964242 
1 0.87195427144899429 1:-0.7891569 2:-0.7058306 
1 0.92891420135581038 1:-1.7844298 2:-0.0346383 
0.86554121163426323 0.7235784484605825 1:-1.2921881 2:-1.0476579 
0.90518713817758945 0.75664703381595999 1:0.1699579 2:-2.3786658 
1 0.92902883363236 1:-0.9357415 2:-0.1009872 
0.77360286270759948 0.64878646406097562 1:-1.0954397 2:-0.7976634 
0.98485190850975579 0.82578767660236818 1:-0.7452202 2:-1.2051983 
0.99796224405263245 0.82763936560113227 1:-1.3065168 2:-0.3812627 
0.91321589677763637 0.76562381291797466 1:-0.4584289 2:-1.6090629 
1 0.92890600142276181 1:-1.5440451 2:0.9804611 
1 0.92910627754806874 1:-0.3799825 2:-2.1021013 
1 0.92897010960527382 1:-2.4214748 2:1.6969535 
1 0.7280643710791278 1:-1.2993327 2:-0.2980204 
1 0.87912696660384049 1:-1.7873544 2:-0.4854951 
1 0.92889631269396444 1:-1.3450237 2:0.7357885 
1 0.88390544154857897 1:-1.4702595 2:-0.3186213 
0.8543842642645989 0.7161670550671303 1:-0.8768751 2:-1.8461913 
1 0.88787728644820041 1:-0.4566188 2:-0.9678102 
0.77669509269813763 0.6497277602550684 1:-0.9711748 2:-0.6184361 
1 0.91768016816098485 1:-1.3427082 2:-0.7750762 
0.65138452655575141 0.54556243613227207 1:-1.4025948 2:-1.1073182 
1 0.92907136036670568 1:-2.1151581 2:1.6346954 
0.86576181647207362 0.72956437092774939 1:-1.8346198 2:-0.4382208 
0.5500605662234378 0.45842599488392133 1:-1.1987857 2:-1.3580775 
1 0.92917282058506723 1:-0.5963889 2:-2.6513118 
0.76664066818989274 0.64623842439105383 1:-1.1686551 2:-0.1136663 
1 0.89677732831451917 1:-0.3658591 2:-0.8333186 
1 0.90160362118943704 1:-0.572548 2:-1.621942 
1 0.92786445842652865 1:-1.6498794 2:-0.2540043 
0.82513541581973948 0.69170833563737666 1:-0.9130872 2:-2.1758235 
1 0.92923924049624729 1:-2.3974862 2:0.1066429 
1 0.92854484777154567 1:-1.867588 2:-0.7873339 
1 0.92843504358615292 1:-1.65185 2:0.9353096 
1 0.92901781625701874 1:-0.8911664 2:-1.4818695 
1 0.92898321610921375 1:-0.7252092 2:-1.5147294 
0.61559253791329593 0.5189175657542815 1:-1.3131166 2:-1.2378404 
1 0.92935076554230378 1:-0.8048642 2:-2.933395 
1 0.92857399986644362 1:-1.1874702 2:-1.2009791 
1 0.92832817757795194 1:-0.8538342 2:-1.1334904 
1 0.92604547721864772 1:-0.6183171 2:-0.9738961 
0.73065256681654922 0.61329636031937462 1:-0.7270721 2:-1.6711046 
0.51996034135171609 0.43304986282208502 1:-1.3026332 2:-1.2402937 
0.60529596377392769 0.50665034573611178 1:-0.697089 2:-1.8346785 
1 0.92909015144273588 1:-0.60659 2:-0.3590568 
1 0.92896929523990102 1:-0.5530523 2:-2.8097575 
1 0.92914358728447444 1:-0.7126121 2:-0.4602594 
0.85501619729467282 0.71662083208565175 1:-0.9113592 2:-1.8171528 
1 0.92910204345742398 1:-0.9931581 2:-1.3033354 
1 0.88532172924315466 1:-1.8122168 2:-0.2912014 
1 0.92918117365990915 1:-1.9209413 2:0.7031654 
0.76905451827624349 0.64506942842933201 1:-1.1018579 2:-0.8343826 
1 0.92956730615079008 1:-1.0956881 2:-1.664594 
1 0.92638020445101876 1:-0.6022678 2:-1.8761157 
1 0.92915527459289282 1:-0.4512558 2:-1.3749776 
1 0.92900818604791724 1:-1.2274629 2:0.1625362 
1 0.92543096208533959 1:-0.6842981 2:-0.0463421 
0.5955642649057834 0.50032340872940317 1:-0.6844801 2:-1.8232822 
1 0.92869688868784417 1:-2.1226735 2:0.8359182 
1 0.8886166857405513 1:-0.4117505 2:-1.0238516 
1 0.86915439177501619 1:0.1684523 2:-2.3136553 
0.63475737305215829 0.53305598858292547 1:-1.3287591 2:-0.6851047 
1 0.86538516527775644 1:-1.256475 2:-1.1055453 
1 0.92911369622908035 1:-0.45584 2:-0.6852816 
1 0.92875150596102907 1:-1.1583372 2:-0.3502537 
1 0.92903118363143478 1:-0.9631629 2:-1.0649907 
0.75313673119313962 0.63208428264388894 1:-0.9384059 2:-0.5906998 
1 0.92876156513717933 1:-2.240406 2:0.75221 
0.73174585906206846 0.61297431082615284 1:-0.7465423 2:-1.6981633 
1 0.92886904868874276 1:-1.1922215 2:-1.5149755 
1 0.9287103906361458 1:-0.0680573 2:-2.132902 
1 0.92913649456624947 1:-0.8801561 2:0.3463403 
0.69923306254927264 0.58602235198632435 1:-0.8332764 2:-1.6327865 
1 0.92901008482322411 1:-0.1768142 2:-2.9020161 
1 0.92874766313513335 1:-1.7630071 2:0.876723 
1 0.928919796879347 1:-0.6906735 2:-1.3888759 
1 0.92870320835354447 1:-1.3471607 2:0.1923565 
1 0.92852042473656093 1:-1.7643972 2:-0.7296443 
1 0.92874879855430836 1:-0.4113487 2:-2.8161152 
1 0.86711714428328801 1:-1.459321 2:-0.3916993 
1 0.92910613738348446 1:-0.8555042 2:-0.4711833 
1 0.89899418409635001 1:-1.6801841 2:0.3308677 
0.89688688388197035 0.75187079535462598 1:-1.3330713 2:-1.0804467 
1 0.87196418489622296 1:-0.8256953 2:-0.7625716 
1 0.92879962218644607 1:-1.0667785 2:-0.1671414 
1 0.92898867769371429 1:-1.2204797 2:0.7415648 
1 0.92950437674256037 1:-1.787454 2:-2.0064699 
1 0.92673946886205183 1:-0.7726646 2:-1.0237554 
1 0.89964803408480887 1:-1.6048133 2:0.3323231 
1 0.92912275399272848 1:-2.1919447 2:0.4092924 
1 0.92907395606983501 1:-2.2612135 2:0.1764061 
1 0.92891476006891027 1:-0.2955715 2:-2.6581591 
1 0.80237553528962335 1:-1.8804914 2:-0.4096216 
1 0.92743939531552744 1:-0.953401 2:-1.9194244 
0.82394475747011364 0.6906134572849103 1:-0.8720451 2:-2.1858789 
0.76708236698499654 0.64124446577721828 1:-1.1792181 2:-0.1488922 
1 0.92882423215904686 1:-0.2019555 2:-2.36748 
0.99440850480076015 0.83323780343774445 1:-0.3435595 2:-2.3039065 
0.9325359148529756 0.78195846234191468 1:-1.1437562 2:-2.2433893 
1 0.91165076270101952 1:-1.2737351 2:-1.3203436 
1 0.92904287576560718 1:-1.4704283 2:0.619043 
1 0.92900675965532464 1:-1.5922035 2:-0.6319593 
1 0.92792987952192674 1:-0.8476386 2:-2.0833183 
1 0.92846260493080246 1:-1.0600472 2:-0.4120958 
1 0.92865339565095151 1:0.1981635 2:-2.5066682 
0.78053869301145251 0.65100053009156922 1:-0.323923 2:-2.3633911 
0.9751613863948474 0.81777476759294765 1:-0.9115979 2:-0.6465474 
1 0.92907068361845779 1:-0.8852785 2:-0.250473 
1 0.92961657767431982 1:-1.0570364 2:0.6371808 
0.91302398330821366 0.76638957384019435 1:-0.4308965 2:-1.5663983 
1 0.92896935194836139 1:-1.4499123 2:-0.0537701 
1 0.92164550296816083 1:-0.4021832 2:-2.2367935 
1 0.92512746313856853 1:-0.7104394 2:-0.9390772 
1 0.9292842175840953 1:-0.2307078 2:-1.9268749 
0.96923411855910746 0.81252402715678818 1:-0.8262945 2:-1.3816736 
0.8041484960721732 0.67377459563824782 1:-0.7422677 2:-1.1492116 
1 0.92917290720951329 1:-0.500066 2:-2.5811203 
0.63117849416675731 0.53178597620446144 1:-1.182979 2:-1.3572797 
1 0.92066672157965213 1:-1.2051214 2:-1.0234319 
1 0.92916501765838477 1:-0.1844756 2:-3.4228913 
1 0.92897890891006119 1:-1.1616908 2:0.3905097 
1 0.92871039063613459 1:-0.6134767 2:-2.1120506 
1 0.92653493831010192 1:-1.4672318 2:-1.2049541 
1 0.92884946962297221 1:-0.0375762 2:-2.6785761 
1 0.92910199435842722 1:-1.6034513 2:-0.8886777 
-0.92722809394755212 0.83919521507009676 1:-1.3163215 2:0.1153228 
-0.8842551163684782 0.83235352741686808 1:-0.972077 2:0.475286 
-0.89046015141539647 0.83787088215104855 1:-0.7968823 2:1.4065419 
-0.89258980835755597 0.83947496537849764 1:1.2216246 2:1.7846404 
-0.89219094194836912 0.83882295718523658 1:-0.0757782 2:1.0098742 
-0.84938220097080963 0.79914637298286761 1:-0.7029459 2:0.6343768 
-0.89191288095995913 0.83940874862550574 1:0.0674799 2:0.9417363 
-0.52697799077570129 0.49648846537611635 1:-0.6672295 2:1.2658526 
-0.89202582396222163 0.83975144359638187 1:-2.3798444 2:-0.3976491 
-0.88892951423245581 0.83583378609158188 1:-2.1607597 2:-0.5530478 
-0.89186088095841798 0.83925206070264458 1:-1.4812658 2:0.4756657 
-0.89251447477066115 0.83941877431066925 1:-0.233964 2:0.3117463 
-0.89213533138727252 0.83955040084596955 1:-2.5619664 2:1.3294971 
-0.89210754227869216 0.83943575328724851 1:0.0497354 2:0.4877944 
-0.84402260433468479 0.79392957794761765 1:-0.7773551 2:0.9048286 
-0.69702827497611985 0.87714674095152423 1:0.1439435 2:1.6903936 
-1 0.82337229113489485 1:-1.7149118 2:-0.1886269 
-0.83202766750675583 0.78319808878667407 1:-0.4071422 2:1.6407028 
-0.89219304202296412 0.83943143429522427 1:-0.502458 2:2.4015611 
-0.88480230889741696 0.83211421435986488 1:-0.6307081 2:1.9869591 
-0.89212313854561098 0.95973118339574959 1:0.2709516 2:1.5183668 
-0.89220109985028495 0.83949297309817539 1:-1.2005643 2:1.3865968 
-0.89202107537278952 0.8390975006377096 1:-0.8066945 2:2.0083461 
-0.90277642502240196 0.8392587935800101 1:-1.7668733 2:0.3265132 
-0.60443880147491214 0.56798368697237789 1:-0.355601 2:1.3296863 
-0.88767140141356704 0.83505309737224764 1:-0.5522767 2:2.6371748 
-0.89169402182681079 0.83842417310568196 1:-0.8568975 2:1.6945114 
-0.89261667788415511 0.83953408498666227 1:-1.2005584 2:1.5873151 
-0.88587796118984741 0.83361529427986991 1:-2.1879369 2:-0.0343338 
-0.89138679629682704 0.83916957634777889 1:-0.2657644 2:1.8567204 
-0.89145594970465547 0.83867338129942559 1:-0.9853278 2:1.2648953 
-0.82193999366604875 0.77143010711111115 1:-1.3112612 2:0.8350437 
-0.96843919203095186 0.83820353382026702 1:-1.7329165 2:-0.2925239 
-0.70178089575805869 0.66059905612951764 1:-1.0095672 2:1.0593558 
-1 0.83936811472021111 1:-1.789253 2:-0.7128154 
-0.89254197106356881 0.83885064590387137 1:-2.6993689 2:-0.2955962 
-0.91269310056464892 0.83543377986448464 1:-1.218977 2:-0.282161 
-0.95549558558335812 0.83929474682897598 1:-1.9304797 2:-0.3636472 
-0.89212681604182342 0.83936962274996019 1:0.1041336 2:0.6026138 
-0.727774639213423 0.68472268611618403 1:-0.7360193 2:0.9594258 
-0.86184262471708961 0.81111658971600742 1:-0.5896967 2:1.1041075 
-0.65656750163687039 0.61746645729127003 1:-0.7570376 2:1.026899 
-0.85592436245687364 0.8051616469724111 1:-0.8086586 2:2.2678216 
-0.51733405896422502 0.48638146006207778 1:-1.1622644 2:1.1921949 
-0.90979288580211293 0.83577782606790207 1:-1.6139486 2:0.8651075 
-0.8915708196076515 0.83850287630483977 1:-2.1760887 2:-0.6579833 
-1 0.83935167107366826 1:-1.4304437 2:-0.4085696 
-0.79467276232120332 0.74711363824821242 1:-0.9915918 2:1.1143063 
-0.89219877548978632 0.83948236666086762 1:0.3011396 2:2.9324801 
-0.89220380970516355 0.83937255590776338 1:0.0461214 2:2.023412 
-0.8899839329461029 0.83708486754678912 1:-0.7037303 2:0.73272 
-0.88173063566466758 0.82959565343570718 1:-0.3125625 2:0.7941087 
-0.97780810700792742 0.83421707936972178 1:-1.5119824 2:0.666623 
-0.7579965483650325 0.71381024832593853 1:-0.5609053 2:2.2110579 
-0.89176702700120813 0.83912831209764471 1:-0.3714536 2:2.3522282 
-0.88954692624046672 0.83665096885533607 1:-0.2262113 2:1.4913407 
-0.64907864407249261 0.61080505899330961 1:-0.9479667 2:0.9821902 
-0.8230203127775173 0.76578823137426533 1:-1.6461732 2:-0.1452507 
-0.72763634866560178 0.68459967573324731 1:-1.6058572 2:1.1545471 
-1 0.83845045680210673 1:-1.7203209 2:0.8664666 
-0.89269462348629647 0.83885654794646258 1:-1.1818509 2:0.9118323 
-0.86911452439190495 0.81754380822102479 1:-0.8575636 2:1.5701493 
-0.88463497102468236 0.83142072424565105 1:-0.5931303 2:2.0672868 
-0.52063762011764037 0.49018489890723449 1:-0.7797681 2:0.9939667 
-0.83941168883488537 0.78938847375440047 1:-1.0958888 2:1.197583 
-0.86932628467424222 0.81745467625230761 1:-0.9253737 2:1.5321719 
-0.89268613792317464 0.8420330699372981 1:0.4225602 2:1.9750053 
-0.21589159398628732 0.20258175537909323 1:-0.9584658 2:1.0221696 
-0.87454967265465267 0.82261088853653175 1:-0.3845234 2:1.5250081 
-0.58223313478801686 0.55922539690205797 1:-1.4504037 2:0.7312354 
-0.88987751309718965 0.83783378354705262 1:-0.1390029 2:2.1071221 
-0.68366200939991462 0.6435509978441154 1:-0.5259266 2:1.826195 
-0.85246270633973986 0.80181553189982324 1:0.1693374 2:1.8566444 
-0.89220006064454405 0.83915970850396482 1:-0.1516736 2:1.1963921 
-0.49132316164498496 0.46134659303256342 1:-0.2096122 2:1.7605678 
-0.89392048713256289 0.8388588660227958 1:-1.8854106 2:-0.0660817 
-0.84421440825780991 0.79479682259710671 1:-1.1373316 2:1.0888232 
-0.82376217365720761 0.77547776397574786 1:-1.3542144 2:0.8833492 
-0.73825121839092678 0.69492970515979602 1:-1.3665294 2:0.3307099 
-0.8773190390844644 1 1:0.0706818 2:1.7261168 
-0.73112750166361096 0.68706666775674807 1:-1.3215166 2:0.3546888 
-0.8892410523449632 0.83671669342933919 1:-0.1375421 2:1.5319263 
-0.52612942220530567 0.4930288822872072 1:-0.9607664 2:0.0043833 
-0.52361151882806323 0.49387008120481457 1:-0.9840508 2:0.0113447 
-0.38380126890858524 0.36150812675648197 1:-0.976483 2:1.0148371 
-0.88600691166410561 0.83354621065722434 1:-2.1124895 2:0.0164571 
-0.84208173416788346 0.79200140309130174 1:-0.9490537 2:0.9077867 
-0.89261429805053139 0.84685229933776562 1:0.3447529 2:1.4182158 
-0.89266633648908811 0.83951197843710001 1:-0.2862415 2:0.5873952 
-0.89234889323845068 0.83925704683466607 1:-2.3822224 2:-0.0136138 
-0.89195937236170042 0.83953277521859138 1:-0.0122705 2:1.3719879 
-0.89262139808720953 0.8494225588410238 1:-1.2052236 2:0.0485241 
-1 0.8353937764139463 1:-1.3195855 2:0.7410586 
-0.89217732879207534 0.83944555753161576 1:-0.2126343 2:1.0019707 
-0.89197085157654143 0.83885202507706857 1:-1.4982058 2:1.789363 
-0.89213608945390444 0.83948421071436907 1:-0.478088 2:0.6538869 
-0.85263294037388382 0.80161757772930164 1:-0.6998047 2:0.563101 
-0.86004175786961035 0.80871118038888479 1:-0.9051043 2:1.0583651 
-0.89213061564406193 0.83907644015979588 1:-1.5514435 2:1.3043162 
-0.88624669819045787 0.83344070883214494 1:-1.5100794 2:0.8420888 
-0.84502902486880316 0.79478728183225567 1:-1.4245918 2:0.8060952 
-0.89219576725385552 0.83946782547403787 1:-0.1815387 2:2.6944311 
-0.88375008863044202 0.83062348835297284 1:-0.552398 2:0.87461 
-0.732595813394192 0.69111588555036563 1:-0.9519449 2:0.6177696 
-0.89637058270358339 0.82618891642438785 1:-1.481995 2:0.1067127 
-0.72811882508210013 0.68468124468498504 1:-1.6215316 2:1.2018138 
-1 0.83760286907789161 1:-1.5808902 2:0.9615092 
-0.7499363775198209 0.70543391225509233 1:-0.682242 2:0.2567346 
-0.66895401067418025 0.62922984875651855 1:-0.1683284 2:1.9783511 
-0.89220250463576056 1 1:1.3229715 2:1.3767095 
-0.89230348038928009 0.83939987440513963 1:-0.8770734 2:1.9113323 
-0.75027374851676576 0.70608295317671255 1:-0.6350946 2:0.2802443 
-0.89215426209468662 0.83948801175893573 1:0.3279163 2:0.504939 
-0.76398457032788758 0.71782441048748846 1:-0.6982335 2:1.3042898 
-0.79366689123349221 0.74680912070341454 1:-0.8892174 2:0.5895674 
-0.73444308587526386 0.69125635391575346 1:-0.947037 2:0.558489 
-0.94292833709769364 0.83949337808241542 1:-0.6406203 2:-0.1016065 
-0.88675921680901315 0.83443154446512979 1:-0.2275447 2:0.7586563 
-0.7585171672990747 0.71361812311465367 1:-0.5107846 2:2.2305428 
-0.8922031881816237 0.83937349838096798 1:-1.8009296 2:2.4580653 
-0.89219653132606402 0.83895973314220318 1:-0.11845 2:0.504582 
-0.89261720528376065 0.83885821590350018 1:-1.535779 2:1.6409223 
-0.4932986861250151 0.4645423514565668 1:-0.2204073 2:1.7454077 
-0.89234810559005084 0.83949234238035109 1:-1.9947149 2:0.9624782 
-1 0.82121998629533466 1:-1.0253512 2:0.6438267 
-0.82347532875622265 0.77522989259640718 1:-1.2182506 2:1.2127351 
-0.89173800251096014 0.83894980212676229 1:-0.8194487 2:1.8019902 
-0.60090125250423487 0.56643160366897871 1:-0.3808286 2:1.353969 
-0.89054773010125432 0.83801049981870168 1:-0.8390976 2:1.3090154 
-0.89174913812280254 0.85350124318777187 1:0.2180234 2:2.0251473 
-0.89217213800061512 0.83947281623854386 1:-0.4225642 2:1.031512 
-0.83252130166918537 0.78364703618480469 1:-0.3773202 2:1.6999375 
-1 0.83564469249833251 1:-1.3037958 2:-0.2409555 
-0.6647195401586069 0.62528924972253641 1:-0.1815932 2:2.0188908 
-0.89223947123135605 0.83949702392519643 1:-1.7582268 2:1.0134567 
-0.88749392788837234 0.83527215798314081 1:-0.5884779 2:2.5506515 
-0.89245112640151203 0.83935138563579015 1:0.1569775 2:2.1259935 
-0.86431514273320531 0.81325573252097028 1:-0.8956903 2:0.8533649 
-0.89268487623737514 0.83948363946299354 1:-2.0851556 2:-0.7696538 
-0.84781866746716106 0.7982965207402074 1:-0.519731 2:1.1298887 
-0.89453580618130102 0.8393360768032454 1:-1.5981286 2:0.4337956 
-0.89143502845658407 0.83912916796724391 1:-0.8868367 2:1.2058738 
-0.9659234974418015 0.83915447931431708 1:-1.3909606 2:0.0235892 
-0.88364109221091336 0.83156800764963457 1:-0.6398921 2:0.8866836 
-0.88680434206510972 0.83446685166981172 1:-1.3103463 2:0.444532 
-0.89219183717852391 0.83941209461326438 1:-0.3955157 2:2.1497728 
-0.71652823022947387 0.6624087795577388 1:0.1705639 2:1.7304945 
-0.89255781429768899 0.83938867518623606 1:0.1188024 2:3.2304203 
-0.89690281799084492 0.83942103037888738 1:-0.9395994 2:0.2728522 
-0.8919278876306167 0.839326898372312 1:-1.4954866 2:0.2315511 
-0.89359439822082498 0.8390755306193719 1:-0.4793131 2:-0.5833893 
-0.61147274124753714 0.57548158850905518 1:-1.1581049 2:1.1509266 
-0.89028473580538281 0.83743690736102672 1:-0.8958693 2:0.7170438 
-0.8878576009600283 0.83545814690368003 1:-0.6876883 2:1.3986407 
-0.87924022500522225 0.82746515504938123 1:-0.4429756 2:1.163058 
-0.89219948804394134 0.83938675576052402 1:-0.9996579 2:1.6984211 
-0.75863032870058145 0.71412298386294182 1:-0.6460123 2:1.2225381 
-0.89279782534974483 0.83885300179951938 1:-1.6660658 2:-0.7882864 
-1 0.83885598762034141 1:-0.7582351 2:-0.7278851 
-0.9356191310150479 0.83931197402636759 1:-1.3896529 2:-0.0934724 
-0.83217217542205757 0.78278901929244327 1:-1.5838755 2:-0.1667297 
-0.89010838839428597 0.83730731836920047 1:-2.0675213 2:-0.5166202 
-0.88766442808727419 0.83483655047110528 1:-0.2824305 2:0.8819563 
-0.85202811302705617 0.80182818072321638 1:0.240717 2:1.8560648 
-0.87416077052748886 0.82233686812086015 1:-0.3470709 2:1.4532133 
-1 0.83943148638683218 1:-1.6302957 2:-0.9287482 
-0.33892379384038013 0.3044405463735087 1:-1.4378163 2:0.7430271 
-0.85627339038506378 0.80531522830806446 1:-0.825495 2:2.1972456 
-0.88920951312091612 0.83603251851641869 1:-0.9718026 2:0.786572 
-0.8926499076472284 0.8395361730050398 1:-1.1213389 2:2.4274309 
-0.89220067412347492 0.83925879358542965 1:-0.4423795 2:0.4545286 
-0.89152668053416984 0.83889031857117602 1:-0.4433234 2:0.8833607 
-0.89266528330126849 0.83948421074727508 1:-2.370194 2:0.3990421 
-0.68359109098603998 0.64260867108025821 1:-0.545725 2:1.7863545 
-1 0.82640224598952761 1:-1.5601067 2:0.0783225 
-0.89178541930595967 0.83948630542174296 1:-1.1204937 2:2.1043122 
-0.79432054318986967 -0.86098611166411054 1:1.5427795 2:0.3952962 
-0.71310672406626796 -0.77273837583333294 1:0.7169171 2:1.3849728 
-1 -1 1:1.0762118 2:1.1838866 
-0.60628189614861427 -0.65676048646947893 1:1.1944295 2:0.8613918 
-0.18113847452421977 -0.19276775304213206 1:0.7918347 2:1.2546806 
-0.86655428809403834 -0.93990676871576839 1:1.3782405 2:0.7405838 
-0.66380781891595864 -0.71687768781060812 1:0.5792203 2:1.5468084 
-1 -1 1:0.7922008 2:1.6909741 
-0.58246075033286737 -0.63121967962022274 1:0.8119515 2:1.3053382 
-0.88968900281245933 -0.96553860638034228 1:1.6653916 2:0.5698262 
-1 -1 1:0.6020216 2:1.3066497 
-0.44453196006354984 -0.47824730119951953 1:1.4405659 2:0.6572195 
-1 -1 1:0.3777456 2:1.676577 
-0.98038708076304226 -1 1:0.6272031 2:1.4485523 
-0.8940795586687541 -0.96887676133190392 1:0.3169076 2:1.0446347 
-0.44951165337149857 -0.49743876503100026 1:0.5345058 2:1.1591821 
-0.84159455388309901 -0.91206968569608882 1:0.946457 2:1.3299056 
-0.63243712928658213 -0.68666260320093131 1:1.0166927 2:1.2437084 
-1 -1 1:0.9686703 2:0.7197376 
-0.97311214881465258 -1 1:1.4622459 2:0.4700979 
-1 -1 1:1.721221 2:0.6386122 
-0.67737781531808006 -0.73430777346358611 1:0.5699541 2:1.0044344 
-0.98311408190651428 -1 1:0.505587 2:1.4104955 
-1 -1 1:1.7719601 2:0.8920534 
-1 -1 1:1.1659302 2:0.0212199 
-0.9988591056630054 -1 1:1.0904079 2:1.1066252 
-0.52360924039307555 -0.56760929978832442 1:0.9652386 2:1.4135818 
-1 -1 1:-1.2327856 2:-0.0345667 
-0.52287145396308377 -0.57047488554772297 1:0.5979714 2:1.5247072 
-1 -1 1:0.5532433 2:1.8640916 
-0.62285175445899665 -0.67651012443657754 1:1.3110285 2:0.1924131 
-0.28558291250187495 -0.30883406476516345 1:0.6843687 2:1.3950444 
-1 -1 1:0.6180381 2:0.6131718 
-1 -1 1:0.6242818 2:2.376012 
-0.80339878153692212 -0.87113393112736848 1:0.8873529 2:1.3364185 
-0.73831392878801139 -0.80095721119513796 1:1.37331 2:0.2834645 
-0.58667185957684831 -0.63546618274668221 1:1.4611608 2:0.7322244 
-1 -1 1:1.0077475 2:0.5672139 
-1 -1 1:1.0868725 2:0.4537497 
-0.55339456726409808 -0.6080670152192712 1:0.8256395 2:1.2208743 
-0.9845402596999645 -1 1:0.8351763 2:1.8186424 
-0.7828578069029386 -0.85340273917534792 1:1.2559312 2:0.5339 
-0.54260481145734174 -0.58826678454112691 1:0.8008194 2:1.4140105 
-0.95106084267446134 -1 1:1.0478325 2:0.812666 
-1 -1 1:1.1918849 2:0.3090437 
-0.96022391243943117 -1 1:1.0801753 2:0.3538759 
-0.47352038179107936 -0.51084251817059789 1:1.3199448 2:0.5019635 
-1 -1 1:1.2611461 2:0.2768668 
-0.98964910817093166 -1 1:1.1692163 2:1.068234 
-0.70981617713021694 -0.772367320605581 1:1.0138525 2:1.105562 
-0.95479697774236594 -1 1:1.1927195 2:1.006821 
-0.83551433753650406 -0.90553527373900677 1:0.8209215 2:1.4630254 
-0.51397139051774976 -0.55804473002467803 1:1.4355252 2:0.6111049 
-1 -1 1:1.4927226 2:1.5313301 
-0.94758766730513411 -1 1:0.9511229 2:0.3045363 
-0.55237672439883378 -0.59908451647702743 1:0.5851658 2:0.9827603 
-0.69581083671524702 -0.75463096804068819 1:1.6048407 2:0.5712973 
-0.32046265725475598 -0.34851473521741311 1:0.6951169 2:1.3603319 
-0.63093041646521286 -0.68391167963453958 1:1.408131 2:0.6128125 
-1 -1 1:1.6982283 2:0.453392 
-0.73311237228227066 -0.77924884997061106 1:1.6414559 2:0.826067 
-0.65580548922059889 -0.71073114582243091 1:1.6197356 2:0.5358776 
-1 -1 1:1.3027981 2:-0.0133294 
-1 -1 1:1.014259 2:1.5090948 
-1 -1 1:0.4653139 2:2.4666912 
-0.76485156483574845 -0.82809747131804556 1:0.7569625 2:0.8548727 
-0.96134659002078626 -1 1:0.8646422 2:1.1827263 
-0.91491055892143203 -0.99397859965678415 1:1.0120731 2:1.4341124 
-0.55654077344207231 -0.61016732987626998 1:0.7664659 2:1.6241754 
-1 -1 1:0.1002349 2:1.7148919 
-0.68937997288461517 -0.74256562289504113 1:0.7522071 2:1.6031212 
-1 -1 1:1.1262464 2:1.5123794 
-1 -1 1:1.2839572 2:1.0594026 
-0.61507524527464341 -0.66358857742083432 1:1.049707 2:0.8664276 
-0.95123897080746445 -1 1:0.5461534 2:1.4587286 
-0.63393487733097165 -0.68650575914382239 1:1.406035 2:0.2789295 
-1 -1 1:0.611242 2:1.1236672 
-0.78699370395511292 -0.85315891211184225 1:1.5304991 2:0.3553096 
-0.63194657392204434 -0.68766792009967193 1:1.3242284 2:0.4883173 
-0.95641749374741869 -1 1:1.1576574 2:0.9410966 
-0.62984346597921792 -0.67320219696977979 1:0.5301407 2:1.1662278 
-0.74321053449808672 -0.80413119906510999 1:0.6400832 2:1.5623807 
-1 -1 1:0.2936686 2:2.0614651 
-0.83341485730910481 -0.90828526860351377 1:0.6415563 2:1.3828158 
-0.72679719286793787 -0.78718649649030992 1:0.8174893 2:1.3803675 
-0.89408178029690555 -0.96890860021646019 1:0.3257143 2:0.9934145 
-0.64243546535197582 -0.69608025750735014 1:0.9315822 2:1.4260276 
-1 -1 1:1.3196176 2:1.2084767 
-1 -1 1:0.7737526 2:0.6070091 
-0.61633736163796637 -0.66910200172490408 1:1.4708168 2:0.281232 
-0.84888395246095938 -0.92067467401951275 1:0.9566764 2:1.035875 
-0.89156824262848577 -0.96581681617264548 1:1.2414484 2:0.5818108 
-0.73861818902464649 -0.79871636384395017 1:0.7863783 2:1.2058844 
-1 -1 1:0.7535049 2:1.084998 
-0.87072212874811461 -0.94847265863974239 1:0.9046252 2:1.0936821 
-1 -1 1:0.3498858 2:1.3256842 
-1 -1 1:0.8896237 2:1.5834543 
-0.29814306899255949 -0.32265957915716359 1:1.1732508 2:0.8631083 
-0.31969031382927748 -0.35087553993847714 1:1.4626959 2:0.7537873 
-0.69505203002799076 -0.75289857995593623 1:0.7476727 2:1.2984052 
-0.81449967908065857 -0.88830376462134264 1:0.6286473 2:1.6105031 
-1 -1 1:0.638723 2:1.6766365 
-1 -1 1:1.2800493 2:-0.2285101 
-0.99910990695149304 -1 1:1.2866253 2:0.9923185 
-0.90847815535425946 -1 1:1.2781071 2:1.4363724 
-0.90805189369067607 -1 1:1.3054967 2:1.3903382 
-0.72822741115198597 -0.78952472000629825 1:0.5463423 2:0.9150737 
-0.63257714678175081 -0.68451436638387253 1:1.2943973 2:0.1747206 
-1 -1 1:0.8576094 2:0.974649 
-0.84922042376971218 -0.92369436298974938 1:1.2150516 2:0.9096453 
-1 -1 1:0.7104742 2:-0.1056528 
-1 -1 1:1.1903592 2:1.3483078 
-1 -1 1:1.6335088 2:-0.0463906 
-0.48848349531829993 -0.53337713615582838 1:1.4267891 2:0.6777138 
-0.81319649371592284 -0.77844968195494668 1:1.6228265 2:0.8550682 
-1 -1 1:1.6569939 2:0.3680091 
-0 -0.022599307297858418 1:1.0419467 2:0.8279871 
-0.81181855175040296 -0.88075073032108742 1:0.8859141 2:0.6659345 
-0.53500820118667924 -0.57972188915569567 1:1.0292236 2:0.905264 
-1 -1 1:1.1963218 2:0.4988239 
-0.48116725014975525 -0.52111168362904348 1:0.54235 2:0.9404066 
-1 -1 1:0.4418068 2:1.8782709 
-0.96411338467948016 -1 1:0.9281519 2:0.3603484 
-1 -1 1:0.8616392 2:0.520324 
-0.43633102189906431 -0.47430854574051573 1:0.8192091 2:1.2857535 
-0.76078101169790868 -0.82582959696325686 1:0.7746721 2:0.8201636 
-1 -1 1:1.4614216 2:0.9119502 
-0.81495232618835334 -0.88315128008596699 1:0.8562403 2:0.6983434 
-1 -1 1:1.3720079 2:0.8439865 
-1 -1 1:0.9678568 2:1.6069165 
-0.62813223728914236 -0.68221779215086231 1:0.7527832 2:1.2555831 
-1 -1 1:0.3623181 2:1.8078523 
-0.98245917191397314 -1 1:0.895079 2:1.7971607 
-1 -1 1:1.6123132 2:0.6634741 
-1 -1 1:1.3038801 2:0.3958644 
-1 -1 1:0.838714 2:1.0659939 
-0.36237561096771242 -0.39011230836792926 1:1.4138276 2:0.718249 
-1 -1 1:1.5322673 2:0.7609221 
-0.40076953990690234 -0.43484207542231806 1:0.8623647 2:1.4177488 
-0.98004124931194658 -1 1:1.1404472 2:0.7713352 
-0.73564030437123473 -0.79877086879173387 1:1.232384 2:1.2475133 
-1 -1 1:0.2514189 2:1.4622604 
-1 -1 1:0.6533357 2:0.7353541 
-0.92997724005747207 -1 1:0.6827915 2:1.303635 
-1 -1 1:0.4503638 2:1.1096512 
-0.71741917093500795 -0.77800050665288678 1:1.0611853 2:0.9205407 
-1 -1 1:1.4122543 2:1.171885 
-1 -1 1:0.9871791 2:1.7516903 
-1 -1 1:1.6774517 2:1.320421 
-1 -1 1:1.330313 2:0.6565364 
-0.97189246633195125 -1 1:1.4125356 2:0.4332187 
-0.66824899907911817 -0.72493770034756544 1:1.0204075 2:1.0709636 
-0.74321374900456449 -0.80445720961867184 1:1.215784 2:1.2146808 
-0.60096741881697757 -0.65104887160039449 1:0.8752072 2:1.4430387 
-0.48036698073342055 -0.52070698129857829 1:0.9200094 2:1.3697879 
-0.65881996085361128 -0.7133682844397794 1:1.0229292 2:1.2700668 
-0.3656390781551816 -0.39509841207968815 1:0.9362892 2:1.0660652 
-0.83748534304139088 -0.91507263513211157 1:1.1355817 2:0.832564 
-1 -1 1:0.8749448 2:0.8128513 
-1 -1 1:1.733424 2:0.3248026 
-0.86355361106082751 -0.93761544613558179 1:1.4275697 2:0.789047 
-0.72743274914622824 -0.78776566952046767 1:1.4985706 2:0.2658053 
-0.94655028422035214 -1 1:1.0335121 2:0.3158954 
