svm_type c_svc
kernel_type rbf
gamma 0.5
nr_class 3
total_sv 263
rho 0.51219767332077026 0.23906731193946415 0.56050214571624546
label 2 1 0
nr_sv 71 115 77
SV
1 0 1:-0.816244 2:-0.193901 
1 0 1:-0.451404 2:-0.138799 
0 1 1:-0.256316 2:-0.134235 
1 0 1:-0.579557 2:-0.0517518 
1 1 1:-0.287745 2:-0.0882841 
1 0 1:-0.654296 2:-0.16532 
1 1 1:-0.707957 2:0.329215 
0 1 1:-0.194111 2:-0.217555 
1 0 1:-0.459715 2:-0.219314 
1 1 1:-0.229826 2:0.015599 
0 1 1:-0.116738 2:-0.363196 
1 0 1:-0.688693 2:-0.393946 
1 0.43398277674296848 1:-0.884225 2:0.158759 
1 0 1:-0.417242 2:-0.227209 
1 0 1:-0.736928 2:-0.0733678 
1 0 1:-0.71037 2:-0.201928 
1 0 1:-0.51032 2:-0.103826 
0 1 1:-0.118991 2:-0.379526 
1 0 1:-0.501247 2:-0.152903 
1 1 1:-0.414622 2:-0.114441 
1 0 1:-0.627467 2:-0.0617415 
0 1 1:-0.322574 2:-0.16726 
1 0 1:-0.562625 2:-0.275103 
1 0 1:-0.617217 2:-0.0598944 
0 1 1:-0.330113 2:-0.168332 
1 1 1:-0.327835 2:-0.0280769 
1 0 1:-0.580804 2:-0.0946482 
1 0.68631106754772009 1:-0.416826 2:-0.127757 
1 0 1:-0.581006 2:-0.0911055 
1 0 1:-0.479973 2:-0.103471 
1 0 1:-0.514851 2:-0.160456 
1 0 1:-0.481386 2:-0.242969 
1 0 1:-0.546084 2:-0.056072 
1 1 1:-0.458072 2:-0.0578087 
1 0 1:-0.751587 2:-0.108529 
1 0 1:-0.654772 2:-0.129171 
1 0 1:-0.581881 2:-0.314032 
1 0 1:-0.91306 2:-0.282773 
0 1 1:-0.20313 2:-0.226589 
1 1 1:-0.385517 2:0.0596545 
1 0 1:-0.569273 2:-0.217295 
1 0 1:-0.594155 2:-0.370352 
1 1 1:-0.47586 2:0.254687 
1 1 1:-0.73946 2:0.140561 
1 1 1:-0.427053 2:0.347142 
1 0 1:-0.467165 2:-0.111561 
1 0 1:-0.477485 2:-0.178446 
1 0 1:-0.52483 2:-0.182524 
1 0 1:-0.667746 2:-0.229106 
0 1 1:-0.165805 2:-0.180521 
0 1 1:-0.103043 2:-0.286728 
1 0 1:-0.676212 2:-0.00381407 
1 0 1:-0.538719 2:-0.279303 
1 0 1:-0.574747 2:-0.0430772 
1 0 1:-0.666733 2:-0.315352 
1 0 1:-0.549225 2:-0.17398 
1 0 1:-0.568214 2:-0.357806 
1 0 1:-0.570762 2:-0.105403 
1 1 1:-0.744733 2:0.201547 
0 1 1:-0.322508 2:-0.199291 
1 1 1:-0.340458 2:-0.111577 
1 1 1:-0.366095 2:-0.10172 
1 0 1:-0.65579 2:-0.0989064 
0 1 1:-0.090954 2:-0.426507 
1 0 1:-0.43043 2:-0.13659 
0 1 1:-0.105488 2:-0.310215 
1 1 1:-0.2793 2:0.00566442 
1 0 1:-0.402612 2:-0.146594 
1 0 1:-0.443275 2:-0.199568 
1 1 1:-0.342698 2:-0.167423 
0 1 1:-0.101308 2:-0.424649 
-1 0 1:-0.553751 2:0.0540682 
-0 1 1:-0.276765 2:0.526952 
-1 0 1:-0.717562 2:-0.0955221 
-1 1 1:-0.498807 2:0.0228698 
-1 0 1:-1 2:-0.369369 
-0 1 1:-0.286213 2:0.541323 
-0 1 1:-0.346886 2:0.334809 
-0 1 1:-0.114433 2:0.656316 
-1 0 1:-0.649879 2:-0.016126 
-0 1 1:-0.0462578 2:0.815011 
-0 1 1:-0.3741 2:0.350209 
-0 1 1:-0.336084 2:0.367715 
-1 0 1:-0.877207 2:-0.306417 
-0 1 1:-0.34156 2:0.42392 
-1 0 1:-0.662455 2:-0.0241581 
-0 1 1:-0.337281 2:0.42908 
-1 0 1:-0.517108 2:0.0666064 
-0 1 1:-0.4165 2:0.222303 
-0 1 1:-0.183878 2:0.500569 
-0 1 1:-0.395548 2:0.274034 
-1 0 1:-0.840803 2:-0.287206 
-0 1 1:-0.0865141 2:0.687193 
-1 0 1:-0.714195 2:-0.192429 
-0 1 1:-0.178929 2:0.549145 
-0 1 1:-0.323167 2:0.362249 
-0 1 1:-0.341103 2:0.288103 
-0 1 1:-0.401015 2:0.257781 
-0 1 1:-0.409395 2:0.248211 
-1 0 1:-0.569551 2:0.0285402 
-1 0 1:-0.547419 2:0.0670558 
-1 0 1:-0.653953 2:-0.106454 
-1 0 1:-0.485284 2:0.137009 
-1 0 1:-0.457457 2:0.161947 
-0 1 1:-0.203664 2:0.546814 
-1 0 1:-0.692964 2:-0.164138 
-1 0 1:-0.461238 2:0.158142 
-0 1 1:-0.202499 2:0.506142 
-0 1 1:-0.337274 2:0.344723 
-0 1 1:-0.125573 2:0.594723 
-1 1 1:-0.422905 2:0.200676 
-1 0 1:-0.797575 2:-0.236345 
-0 1 1:-0.318335 2:0.341739 
-0 1 1:-0.117937 2:0.793443 
-1 0 1:-0.518186 2:0.10258 
-1 0 1:-0.698572 2:-0.131083 
-1 0 1:-0.495743 2:0.0845608 
-0 1 1:-0.111768 2:0.639074 
-0 1 1:-0.234791 2:0.732809 
-1 1 1:-0.27591 2:0.292484 
-0 1 1:-0.229486 2:0.417543 
-1 0 1:-0.535458 2:0.0766364 
-1 0 1:-0.633289 2:-0.0665534 
-1 0 1:-0.848303 2:-0.37572 
-0 1 1:-0.150413 2:0.577379 
-1 0 1:-0.587524 2:-0.0426917 
-0 1 1:-0.274518 2:0.608762 
-1 1 1:-0.302284 2:0.182753 
-0 1 1:-0.237582 2:0.528909 
-1 0 1:-0.713835 2:-0.132583 
-0 1 1:-0.0953555 2:0.63597 
-1 0 1:-0.520813 2:0.0970509 
-0 1 1:-0.10748 2:0.63157 
-0 1 1:-0.414404 2:0.255629 
-0.95855444195234341 0 1:-0.711372 2:-0.0214824 
-0 1 1:-0.12036 2:0.711876 
-1 0 1:-0.625658 2:-0.0114717 
-0 1 1:0.0325457 2:1 
-0 1 1:-0.411276 2:0.23922 
-1 0 1:-0.474648 2:0.149181 
-1 0 1:-0.724343 2:-0.178827 
-0 1 1:-0.355815 2:0.31891 
-1 0 1:-0.558415 2:0.0332622 
-1 1 1:-0.655481 2:-0.260376 
-1 1 1:-0.399189 2:0.156392 
-1 1 1:-0.395447 2:0.210036 
-1 1 1:-0.412252 2:0.00831607 
-0 1 1:-0.194142 2:0.528074 
-1 0 1:-0.604147 2:-0.121618 
-0 1 1:-0.226982 2:0.436239 
-0 1 1:-0.0670105 2:0.738639 
-1 0 1:-0.536397 2:0.0781707 
-1 1 1:-0.342845 2:0.251573 
-0 1 1:-0.0681601 2:0.702356 
-0.041445558047656643 1 1:-0.415286 2:0.210993 
-0 1 1:-0.39282 2:0.236573 
-0 1 1:-0.33481 2:0.431371 
-0 1 1:-0.355722 2:0.408949 
-1 0.046931642114234659 1:-0.75284 2:-0.32382 
-0 1 1:-0.257026 2:0.462252 
-0 1 1:-0.186976 2:0.51238 
-1 0 1:-0.763105 2:-0.156276 
-1 0 1:-0.586489 2:0.0178309 
-0 1 1:-0.25989 2:0.572081 
-0 1 1:-0.353662 2:0.384712 
-0 0.72575893090038179 1:-0.389779 2:0.323945 
-1 0 1:-0.796355 2:-0.129826 
-0 1 1:-0.398232 2:0.293529 
-1 0 1:-0.898367 2:-0.307581 
-1 0 1:-0.652074 2:-0.0755135 
-1 0 1:-0.669015 2:-0.0649035 
-1 0 1:-0.495096 2:0.146819 
-0 1 1:-0.299773 2:0.337487 
-0 1 1:-0.0412409 2:0.722838 
-1 1 1:-0.285519 2:0.293955 
-1 0 1:-0.798762 2:-0.197995 
-1 0 1:-0.68304 2:-0.0290492 
-1 0 1:-0.535702 2:0.0818949 
-0 1 1:-0.206457 2:0.504833 
-0 1 1:-0.182848 2:0.658012 
-0 1 1:-0.333341 2:0.418597 
-1 0 1:-0.682331 2:-0.119226 
-0 1 1:-0.202614 2:0.601509 
-1 0 1:-0.593105 2:-0.036079 
-1 0 1:-0.745941 2:-0.200082 
-1 0 1:-0.803044 2:-0.196681 
-0 -1 1:-0.118822 2:0.335644 
-0 -1 1:-0.0931406 2:0.808884 
-1 -1 1:-0.596223 2:0.379289 
-1 -0 1:0.128468 2:-0.00934876 
-1 -1 1:-0.273508 2:0.148078 
-0 -1 1:-0.172921 2:0.847613 
-0 -1 1:-0.406185 2:0.485038 
-0 -1 1:-0.0522144 2:0.624137 
-0 -1 1:-0.0877265 2:0.594939 
-0 -1 1:-0.168402 2:0.400851 
-0 -1 1:-0.222796 2:0.599544 
-1 -0 1:-0.134127 2:-0.12879 
-1 -1 1:-0.372543 2:0.012057 
-0 -1 1:-0.188202 2:0.693555 
-1 -0 1:0.149142 2:-0.30528 
-1 -1 1:-0.255117 2:-0.0790706 
-0 -1 1:-0.288639 2:0.458005 
-1 -1 1:-0.301126 2:0.000230361 
-0 -1 1:-0.450786 2:0.643303 
-0 -1 1:-0.0939279 2:0.217077 
-1 -1 1:-0.188861 2:0.246723 
-0 -1 1:-0.156616 2:0.394619 
-0 -1 1:-0.117894 2:0.42862 
-1 -1 1:-0.285256 2:0.156868 
-0 -1 1:0.00194258 2:0.46643 
-0 -1 1:-0.250151 2:0.371785 
-1 -0 1:0.123605 2:-0.348324 
-0 -1 1:-0.135984 2:0.632687 
-1 -1 1:-0.431971 2:0.291848 
-0 -1 1:-0.0503699 2:0.566189 
-0 -1 1:0.0671555 2:0.530429 
-1 -1 1:-0.271153 2:0.302117 
-1 -0 1:-0.049616 2:-0.0864681 
-0 -1 1:-0.125713 2:0.763921 
-0 -1 1:-0.15513 2:0.375817 
-1 -1 1:-0.222696 2:0.0559179 
-0 -1 1:-0.127197 2:0.238115 
-1 -1 1:-0.512707 2:0.193342 
-0 -1 1:-0.19072 2:0.39408 
-0 -1 1:-0.337673 2:0.726971 
-0 -1 1:-0.293252 2:0.359875 
-0 -1 1:-0.0394248 2:0.269026 
-0 -1 1:-0.236185 2:0.499109 
-1 -1 1:-0.17582 2:0.227138 
-0 -1 1:-0.0961498 2:0.461483 
-0 -1 1:-0.123865 2:0.294547 
-1 -1 1:-0.300492 2:0.146537 
-0 -1 1:0.147938 2:0.866105 
-0 -1 1:-0.177408 2:0.389337 
-0 -1 1:-0.205223 2:0.757434 
-0 -1 1:-0.0504606 2:0.863416 
-0 -0.77269057301461641 1:0.0633383 2:0.516568 
-0 -1 1:-0.0856968 2:0.55674 
-1 -1 1:-0.919928 2:0.348242 
-0 -1 1:-0.089596 2:0.237517 
-0 -1 1:0.023858 2:0.668947 
-0 -1 1:-0.194605 2:0.380075 
-1 -1 1:-0.179195 2:-0.0749714 
-0.12029384429068869 -0 1:0.16432 2:-0.0400902 
-0 -1 1:-0.209901 2:0.33035 
-1 -1 1:-0.258239 2:-0.170829 
-1 -1 1:-0.384645 2:0.389202 
-1 -1 1:-0.433652 2:0.274883 
-1 -0 1:-0.0629003 2:-0.165492 
-1 -1 1:-0.133058 2:0.0530876 
-1 -1 1:-0.359233 2:-0.019147 
-0 -1 1:-0.0509355 2:0.49789 
-1 -0 1:0.126707 2:-0.230931 
-0 -1 1:0.0628569 2:0.716112 
-0 -1 1:-0.567912 2:0.607359 
-0 -1 1:-0.0380738 2:0.526987 
-0 -1 1:0.0115077 2:0.519236 
-0 -1 1:0.0642392 2:0.851 
-0 -1 1:-0.0587269 2:0.294823 
-0 -1 1:-0.0783779 2:0.586822 
-1 -0 1:0.345025 2:-0.572892 
-1 -0 1:-0.118423 2:-0.329735 
